<?xml version="1.0" encoding="UTF-8" standalone="yes"?>
<PMML xmlns="http://www.dmg.org/PMML-4_3" xmlns:data="http://jpmml.org/jpmml-model/InlineTable" version="4.3">
	<Header>
		<Application name="JPMML-SkLearn" version="1.5.34"/>
		<Timestamp>2020-04-07T20:02:58Z</Timestamp>
	</Header>
	<MiningBuildTask>
		<Extension>PMMLPipeline(steps=[('mapper', DataFrameMapper(default=False, df_out=False,
                features=[(['Age'], None),
                          (['Employment'],
                           LabelBinarizer(neg_label=0, pos_label=1,
                                          sparse_output=True)),
                          (['Education'],
                           LabelBinarizer(neg_label=0, pos_label=1,
                                          sparse_output=True)),
                          (['Marital'],
                           LabelBinarizer(neg_label=0, pos_label=1,
                                          sparse_output=True)),
                          (['Occupation'],
                           LabelBinarizer(neg_label=0, pos_label=1,
                                          sparse_output=True)),
                          (['Income'], None),
                          (['Gender'],
                           LabelBinarizer(neg_label=0, pos_label=1,
                                          sparse_output=True)),
                          (['Hours'], None)],
                input_df=False, sparse=False)),
       ('classifier', XGBClassifier(base_score=0.5, booster=None, colsample_bylevel=1,
              colsample_bynode=1, colsample_bytree=1, gamma=0, gpu_id=-1,
              importance_type='gain', interaction_constraints=None,
              learning_rate=0.300000012, max_delta_step=0, max_depth=5,
              min_child_weight=1, missing=nan, monotone_constraints=None,
              n_estimators=71, n_jobs=0, num_parallel_tree=1,
              objective='binary:logistic', random_state=13, reg_alpha=0,
              reg_lambda=1, scale_pos_weight=1, subsample=1, tree_method=None,
              validate_parameters=False, verbosity=None))])</Extension>
	</MiningBuildTask>
	<DataDictionary>
		<DataField name="Adjusted" optype="categorical" dataType="integer">
			<Value value="0"/>
			<Value value="1"/>
		</DataField>
		<DataField name="Age" optype="continuous" dataType="double"/>
		<DataField name="Employment" optype="categorical" dataType="string">
			<Value value="Consultant"/>
			<Value value="PSFederal"/>
			<Value value="PSLocal"/>
			<Value value="PSState"/>
			<Value value="Private"/>
			<Value value="SelfEmp"/>
			<Value value="Volunteer"/>
		</DataField>
		<DataField name="Education" optype="categorical" dataType="string">
			<Value value="Associate"/>
			<Value value="Bachelor"/>
			<Value value="College"/>
			<Value value="Doctorate"/>
			<Value value="HSgrad"/>
			<Value value="Master"/>
			<Value value="Preschool"/>
			<Value value="Professional"/>
			<Value value="Vocational"/>
			<Value value="Yr10"/>
			<Value value="Yr11"/>
			<Value value="Yr12"/>
			<Value value="Yr1t4"/>
			<Value value="Yr5t6"/>
			<Value value="Yr7t8"/>
			<Value value="Yr9"/>
		</DataField>
		<DataField name="Marital" optype="categorical" dataType="string">
			<Value value="Absent"/>
			<Value value="Divorced"/>
			<Value value="Married"/>
			<Value value="Married-spouse-absent"/>
			<Value value="Unmarried"/>
			<Value value="Widowed"/>
		</DataField>
		<DataField name="Occupation" optype="categorical" dataType="string">
			<Value value="Cleaner"/>
			<Value value="Clerical"/>
			<Value value="Executive"/>
			<Value value="Farming"/>
			<Value value="Home"/>
			<Value value="Machinist"/>
			<Value value="Military"/>
			<Value value="Professional"/>
			<Value value="Protective"/>
			<Value value="Repair"/>
			<Value value="Sales"/>
			<Value value="Service"/>
			<Value value="Support"/>
			<Value value="Transport"/>
		</DataField>
		<DataField name="Income" optype="continuous" dataType="double"/>
		<DataField name="Gender" optype="categorical" dataType="string">
			<Value value="Female"/>
			<Value value="Male"/>
		</DataField>
		<DataField name="Hours" optype="continuous" dataType="double"/>
	</DataDictionary>
	<TransformationDictionary/>
	<MiningModel functionName="classification" algorithmName="XGBoost (GBTree)" x-mathContext="float">
		<MiningSchema>
			<MiningField name="Adjusted" usageType="target"/>
			<MiningField name="Age"/>
			<MiningField name="Employment"/>
			<MiningField name="Education"/>
			<MiningField name="Marital"/>
			<MiningField name="Occupation"/>
			<MiningField name="Income"/>
			<MiningField name="Gender"/>
			<MiningField name="Hours"/>
		</MiningSchema>
		<Segmentation multipleModelMethod="modelChain" x-missingPredictionTreatment="returnMissing">
			<Segment id="1">
				<True/>
				<MiningModel functionName="regression" x-mathContext="float">
					<MiningSchema>
						<MiningField name="Employment"/>
						<MiningField name="Education"/>
						<MiningField name="Marital"/>
						<MiningField name="Occupation"/>
						<MiningField name="Gender"/>
						<MiningField name="Age"/>
						<MiningField name="Income"/>
						<MiningField name="Hours"/>
					</MiningSchema>
					<Output>
						<OutputField name="xgbValue" optype="continuous" dataType="float" isFinalResult="false"/>
					</Output>
					<LocalTransformations>
						<DerivedField name="float(Age)" optype="continuous" dataType="float">
							<FieldRef field="Age"/>
						</DerivedField>
						<DerivedField name="float(Income)" optype="continuous" dataType="float">
							<FieldRef field="Income"/>
						</DerivedField>
						<DerivedField name="float(Hours)" optype="continuous" dataType="float">
							<FieldRef field="Hours"/>
						</DerivedField>
					</LocalTransformations>
					<Segmentation multipleModelMethod="sum">
						<Segment id="1">
							<True/>
							<TreeModel functionName="regression" noTrueChildStrategy="returnLastPrediction" x-mathContext="float">
								<MiningSchema>
									<MiningField name="Employment"/>
									<MiningField name="Education"/>
									<MiningField name="Marital"/>
									<MiningField name="Occupation"/>
									<MiningField name="Gender"/>
									<MiningField name="float(Age)"/>
									<MiningField name="float(Income)"/>
									<MiningField name="float(Hours)"/>
								</MiningSchema>
								<Node score="-0.5675676">
									<True/>
									<Node score="-0.371134">
										<SimplePredicate field="Marital" operator="equal" value="Married"/>
										<Node score="-0.3176471">
											<SimplePredicate field="Occupation" operator="equal" value="Executive"/>
											<Node score="0.36842105">
												<SimplePredicate field="float(Age)" operator="greaterOrEqual" value="31.5"/>
												<Node score="-0.0">
													<SimplePredicate field="Employment" operator="equal" value="Consultant"/>
													<Node score="-0.27272728">
														<SimplePredicate field="float(Income)" operator="greaterOrEqual" value="43039.47"/>
													</Node>
												</Node>
												<Node score="0.085714296">
													<SimplePredicate field="Education" operator="equal" value="HSgrad"/>
												</Node>
											</Node>
											<Node score="0.16363637">
												<SimplePredicate field="Education" operator="equal" value="Bachelor"/>
											</Node>
										</Node>
										<Node score="-0.20000002">
											<SimplePredicate field="Occupation" operator="equal" value="Professional"/>
											<Node score="-0.26666668">
												<SimplePredicate field="Education" operator="equal" value="College"/>
											</Node>
											<Node score="0.30297032">
												<SimplePredicate field="float(Hours)" operator="greaterOrEqual" value="22.5"/>
											</Node>
										</Node>
										<Node score="-0.1724551">
											<SimplePredicate field="float(Age)" operator="greaterOrEqual" value="36.5"/>
											<Node score="0.15348838">
												<SimplePredicate field="Occupation" operator="equal" value="Clerical"/>
											</Node>
										</Node>
										<Node score="-0.06206897">
											<SimplePredicate field="float(Hours)" operator="greaterOrEqual" value="55.5"/>
										</Node>
									</Node>
									<Node score="-0.3">
										<SimplePredicate field="Education" operator="equal" value="Professional"/>
										<Node score="0.27272728">
											<SimplePredicate field="Gender" operator="equal" value="Male"/>
										</Node>
									</Node>
									<Node score="-0.06666667">
										<SimplePredicate field="Education" operator="equal" value="Doctorate"/>
										<Node score="0.06666667">
											<SimplePredicate field="float(Age)" operator="greaterOrEqual" value="43.5"/>
										</Node>
									</Node>
									<Node score="-0.47256637">
										<SimplePredicate field="Education" operator="equal" value="Bachelor"/>
										<Node score="-0.21702127">
											<SimplePredicate field="float(Age)" operator="greaterOrEqual" value="41.5"/>
										</Node>
									</Node>
									<Node score="-0.3714286">
										<SimplePredicate field="Education" operator="equal" value="Master"/>
									</Node>
								</Node>
							</TreeModel>
						</Segment>
						<Segment id="2">
							<True/>
							<TreeModel functionName="regression" noTrueChildStrategy="returnLastPrediction" x-mathContext="float">
								<MiningSchema>
									<MiningField name="Employment"/>
									<MiningField name="Education"/>
									<MiningField name="Marital"/>
									<MiningField name="Occupation"/>
									<MiningField name="float(Age)"/>
									<MiningField name="float(Income)"/>
									<MiningField name="float(Hours)"/>
								</MiningSchema>
								<Node score="-0.44213262">
									<True/>
									<Node score="-0.26807728">
										<SimplePredicate field="Marital" operator="equal" value="Married"/>
										<Node score="-0.35091814">
											<SimplePredicate field="Education" operator="equal" value="Bachelor"/>
											<Node score="0.16333261">
												<SimplePredicate field="float(Hours)" operator="greaterOrEqual" value="41.0"/>
												<Node score="0.2318855">
													<SimplePredicate field="Employment" operator="equal" value="Private"/>
													<Node score="0.44176546">
														<SimplePredicate field="float(Income)" operator="greaterOrEqual" value="38762.93"/>
													</Node>
												</Node>
												<Node score="-0.17651498">
													<SimplePredicate field="Occupation" operator="equal" value="Professional"/>
												</Node>
											</Node>
											<Node score="-0.17001235">
												<SimplePredicate field="Employment" operator="equal" value="Private"/>
												<Node score="0.18529105">
													<SimplePredicate field="float(Age)" operator="greaterOrEqual" value="33.5"/>
												</Node>
											</Node>
											<Node score="0.043104123">
												<SimplePredicate field="float(Hours)" operator="greaterOrEqual" value="38.5"/>
											</Node>
										</Node>
										<Node score="-0.0356536">
											<SimplePredicate field="Education" operator="equal" value="Master"/>
											<Node score="0.012498281">
												<SimplePredicate field="float(Hours)" operator="greaterOrEqual" value="26.0"/>
												<Node score="0.38461545">
													<SimplePredicate field="float(Income)" operator="greaterOrEqual" value="14991.77"/>
												</Node>
											</Node>
										</Node>
										<Node score="-0.31260672">
											<SimplePredicate field="float(Age)" operator="greaterOrEqual" value="35.5"/>
											<Node score="-0.063103534">
												<SimplePredicate field="float(Hours)" operator="greaterOrEqual" value="34.5"/>
											</Node>
										</Node>
										<Node score="0.28682244">
											<SimplePredicate field="Education" operator="equal" value="Professional"/>
										</Node>
									</Node>
									<Node score="-0.34518552">
										<SimplePredicate field="float(Hours)" operator="greaterOrEqual" value="49.5"/>
										<Node score="0.15642123">
											<SimplePredicate field="Education" operator="equal" value="Professional"/>
										</Node>
										<Node score="-0.017890483">
											<SimplePredicate field="Education" operator="equal" value="Bachelor"/>
											<Node score="-0.29409313">
												<SimplePredicate field="float(Hours)" operator="greaterOrEqual" value="57.5"/>
											</Node>
										</Node>
										<Node score="-0.027192904">
											<SimplePredicate field="Employment" operator="equal" value="PSLocal"/>
										</Node>
									</Node>
									<Node score="-0.3940947">
										<SimplePredicate field="Occupation" operator="equal" value="Professional"/>
										<Node score="-0.021664895">
											<SimplePredicate field="float(Age)" operator="greaterOrEqual" value="40.5"/>
											<Node score="-0.28617978">
												<SimplePredicate field="float(Income)" operator="greaterOrEqual" value="77266.09"/>
											</Node>
										</Node>
									</Node>
									<Node score="-0.09558192">
										<SimplePredicate field="Education" operator="equal" value="Master"/>
									</Node>
								</Node>
							</TreeModel>
						</Segment>
						<Segment id="3">
							<True/>
							<TreeModel functionName="regression" noTrueChildStrategy="returnLastPrediction" x-mathContext="float">
								<MiningSchema>
									<MiningField name="Employment"/>
									<MiningField name="Education"/>
									<MiningField name="Marital"/>
									<MiningField name="Occupation"/>
									<MiningField name="Gender"/>
									<MiningField name="float(Age)"/>
									<MiningField name="float(Income)"/>
									<MiningField name="float(Hours)"/>
								</MiningSchema>
								<Node score="-0.38005608">
									<True/>
									<Node score="-0.22007473">
										<SimplePredicate field="Marital" operator="equal" value="Married"/>
										<Node score="-0.18298374">
											<SimplePredicate field="Occupation" operator="equal" value="Executive"/>
											<Node score="-0.049492378">
												<SimplePredicate field="Employment" operator="equal" value="Consultant"/>
												<Node score="-0.23485361">
													<SimplePredicate field="float(Income)" operator="greaterOrEqual" value="43039.47"/>
												</Node>
												<Node score="0.10312035">
													<SimplePredicate field="float(Age)" operator="greaterOrEqual" value="49.0"/>
												</Node>
											</Node>
											<Node score="0.08119835">
												<SimplePredicate field="float(Age)" operator="greaterOrEqual" value="31.5"/>
												<Node score="0.2539561">
													<SimplePredicate field="float(Income)" operator="greaterOrEqual" value="29239.695"/>
												</Node>
											</Node>
											<Node score="0.10441082">
												<SimplePredicate field="Education" operator="equal" value="Bachelor"/>
											</Node>
										</Node>
										<Node score="0.29039308">
											<SimplePredicate field="Occupation" operator="equal" value="Professional"/>
											<Node score="-0.27131873">
												<SimplePredicate field="Education" operator="equal" value="College"/>
												<Node score="-0.05776653">
													<SimplePredicate field="float(Income)" operator="greaterOrEqual" value="37409.215"/>
												</Node>
											</Node>
											<Node score="0.074745566">
												<SimplePredicate field="float(Age)" operator="greaterOrEqual" value="39.5"/>
											</Node>
										</Node>
										<Node score="0.13788524">
											<SimplePredicate field="float(Income)" operator="greaterOrEqual" value="60930.855"/>
											<Node score="-0.28727433">
												<SimplePredicate field="Occupation" operator="equal" value="Service"/>
											</Node>
										</Node>
										<Node score="-0.042515203">
											<SimplePredicate field="float(Hours)" operator="greaterOrEqual" value="41.5"/>
										</Node>
									</Node>
									<Node score="-0.2869351">
										<SimplePredicate field="float(Hours)" operator="greaterOrEqual" value="49.5"/>
										<Node score="0.13284962">
											<SimplePredicate field="Education" operator="equal" value="Professional"/>
										</Node>
										<Node score="0.09696273">
											<SimplePredicate field="Occupation" operator="equal" value="Executive"/>
											<Node score="-0.25621045">
												<SimplePredicate field="float(Income)" operator="greaterOrEqual" value="79755.81"/>
											</Node>
										</Node>
										<Node score="-0.019780027">
											<SimplePredicate field="float(Age)" operator="greaterOrEqual" value="52.5"/>
										</Node>
									</Node>
									<Node score="-0.3615285">
										<SimplePredicate field="Occupation" operator="equal" value="Professional"/>
										<Node score="0.071302146">
											<SimplePredicate field="float(Age)" operator="greaterOrEqual" value="47.5"/>
											<Node score="-0.20200287">
												<SimplePredicate field="float(Income)" operator="greaterOrEqual" value="76022.97"/>
											</Node>
										</Node>
										<Node score="-0.13855885">
											<SimplePredicate field="Gender" operator="equal" value="Male"/>
										</Node>
									</Node>
									<Node score="-0.07870007">
										<SimplePredicate field="Education" operator="equal" value="Master"/>
									</Node>
									<Node score="-0.21318236">
										<SimplePredicate field="Education" operator="equal" value="Associate"/>
									</Node>
								</Node>
							</TreeModel>
						</Segment>
						<Segment id="4">
							<True/>
							<TreeModel functionName="regression" noTrueChildStrategy="returnLastPrediction" x-mathContext="float">
								<MiningSchema>
									<MiningField name="Education"/>
									<MiningField name="Marital"/>
									<MiningField name="Occupation"/>
									<MiningField name="float(Age)"/>
									<MiningField name="float(Income)"/>
									<MiningField name="float(Hours)"/>
								</MiningSchema>
								<Node score="-0.35519463">
									<True/>
									<Node score="0.08586107">
										<SimplePredicate field="Marital" operator="equal" value="Married"/>
										<Node score="-0.31045064">
											<SimplePredicate field="Education" operator="equal" value="HSgrad"/>
											<Node score="-0.1272476">
												<SimplePredicate field="float(Income)" operator="greaterOrEqual" value="26964.48"/>
												<Node score="0.07410236">
													<SimplePredicate field="Occupation" operator="equal" value="Clerical"/>
													<Node score="0.31765032">
														<SimplePredicate field="float(Hours)" operator="greaterOrEqual" value="39.0"/>
													</Node>
												</Node>
												<Node score="0.2678053">
													<SimplePredicate field="float(Hours)" operator="greaterOrEqual" value="64.5"/>
												</Node>
											</Node>
											<Node score="0.016312646">
												<SimplePredicate field="Occupation" operator="equal" value="Executive"/>
											</Node>
											<Node score="-0.06373548">
												<SimplePredicate field="Occupation" operator="equal" value="Machinist"/>
											</Node>
										</Node>
										<Node score="-0.121704586">
											<SimplePredicate field="Occupation" operator="equal" value="Service"/>
											<Node score="-0.07518269">
												<SimplePredicate field="float(Income)" operator="greaterOrEqual" value="55414.117"/>
											</Node>
											<Node score="-0.35376438">
												<SimplePredicate field="float(Income)" operator="greaterOrEqual" value="27380.82"/>
											</Node>
										</Node>
										<Node score="-0.3712566">
											<SimplePredicate field="Education" operator="equal" value="Yr7t8"/>
										</Node>
										<Node score="-0.117466874">
											<SimplePredicate field="Occupation" operator="equal" value="Repair"/>
										</Node>
									</Node>
									<Node score="-0.21022588">
										<SimplePredicate field="float(Age)" operator="greaterOrEqual" value="38.5"/>
										<Node score="0.22814794">
											<SimplePredicate field="Education" operator="equal" value="Professional"/>
										</Node>
										<Node score="-0.26710567">
											<SimplePredicate field="float(Income)" operator="greaterOrEqual" value="47019.25"/>
											<Node score="0.1376205">
												<SimplePredicate field="Education" operator="equal" value="Doctorate"/>
											</Node>
										</Node>
										<Node score="0.28739643">
											<SimplePredicate field="Education" operator="equal" value="Bachelor"/>
										</Node>
									</Node>
									<Node score="0.09279709">
										<SimplePredicate field="Education" operator="equal" value="Associate"/>
										<Node score="-0.21632752">
											<SimplePredicate field="float(Age)" operator="greaterOrEqual" value="24.5"/>
										</Node>
									</Node>
									<Node score="-0.28081325">
										<SimplePredicate field="float(Hours)" operator="greaterOrEqual" value="49.0"/>
										<Node score="-0.05261252">
											<SimplePredicate field="Education" operator="equal" value="Bachelor"/>
										</Node>
									</Node>
								</Node>
							</TreeModel>
						</Segment>
						<Segment id="5">
							<True/>
							<TreeModel functionName="regression" noTrueChildStrategy="returnLastPrediction" x-mathContext="float">
								<MiningSchema>
									<MiningField name="Employment"/>
									<MiningField name="Education"/>
									<MiningField name="Marital"/>
									<MiningField name="Occupation"/>
									<MiningField name="float(Age)"/>
									<MiningField name="float(Income)"/>
									<MiningField name="float(Hours)"/>
								</MiningSchema>
								<Node score="-0.32619503">
									<True/>
									<Node score="-0.12799987">
										<SimplePredicate field="Marital" operator="equal" value="Married"/>
										<Node score="-0.045600258">
											<SimplePredicate field="Education" operator="equal" value="Master"/>
											<Node score="-0.042607594">
												<SimplePredicate field="float(Hours)" operator="greaterOrEqual" value="26.0"/>
												<Node score="0.37598464">
													<SimplePredicate field="float(Income)" operator="greaterOrEqual" value="22307.814"/>
													<Node score="0.07682404">
														<SimplePredicate field="float(Age)" operator="greaterOrEqual" value="52.5"/>
													</Node>
												</Node>
												<Node score="0.084916204">
													<SimplePredicate field="Occupation" operator="equal" value="Executive"/>
												</Node>
											</Node>
										</Node>
										<Node score="-0.062117107">
											<SimplePredicate field="Education" operator="equal" value="Bachelor"/>
											<Node score="0.018152893">
												<SimplePredicate field="float(Hours)" operator="greaterOrEqual" value="41.0"/>
												<Node score="0.231775">
													<SimplePredicate field="Employment" operator="equal" value="Private"/>
												</Node>
											</Node>
											<Node score="0.16124974">
												<SimplePredicate field="float(Income)" operator="greaterOrEqual" value="67721.17"/>
											</Node>
										</Node>
										<Node score="-0.15758745">
											<SimplePredicate field="Employment" operator="equal" value="Private"/>
											<Node score="-0.026125412">
												<SimplePredicate field="float(Hours)" operator="greaterOrEqual" value="41.5"/>
											</Node>
										</Node>
										<Node score="0.0785778">
											<SimplePredicate field="float(Age)" operator="greaterOrEqual" value="39.0"/>
										</Node>
									</Node>
									<Node score="-0.25157106">
										<SimplePredicate field="float(Age)" operator="greaterOrEqual" value="38.5"/>
										<Node score="-0.023734896">
											<SimplePredicate field="float(Hours)" operator="greaterOrEqual" value="49.5"/>
											<Node score="-0.029758139">
												<SimplePredicate field="float(Income)" operator="greaterOrEqual" value="78501.945"/>
												<Node score="-0.265718">
													<SimplePredicate field="float(Hours)" operator="greaterOrEqual" value="58.0"/>
												</Node>
											</Node>
											<Node score="0.39860728">
												<SimplePredicate field="Marital" operator="equal" value="Absent"/>
											</Node>
										</Node>
										<Node score="0.16782853">
											<SimplePredicate field="Education" operator="equal" value="Bachelor"/>
											<Node score="-0.24603395">
												<SimplePredicate field="float(Income)" operator="greaterOrEqual" value="77266.09"/>
											</Node>
										</Node>
										<Node score="0.04564466">
											<SimplePredicate field="Education" operator="equal" value="Doctorate"/>
										</Node>
									</Node>
									<Node score="-0.25558224">
										<SimplePredicate field="float(Hours)" operator="greaterOrEqual" value="49.0"/>
										<Node score="0.05114039">
											<SimplePredicate field="Occupation" operator="equal" value="Professional"/>
										</Node>
										<Node score="0.072004475">
											<SimplePredicate field="Marital" operator="equal" value="Unmarried"/>
										</Node>
									</Node>
									<Node score="-0.22135313">
										<SimplePredicate field="Education" operator="equal" value="Associate"/>
										<Node score="0.045300983">
											<SimplePredicate field="float(Income)" operator="greaterOrEqual" value="79260.28"/>
										</Node>
									</Node>
								</Node>
							</TreeModel>
						</Segment>
						<Segment id="6">
							<True/>
							<TreeModel functionName="regression" noTrueChildStrategy="returnLastPrediction" x-mathContext="float">
								<MiningSchema>
									<MiningField name="Education"/>
									<MiningField name="Marital"/>
									<MiningField name="Occupation"/>
									<MiningField name="float(Age)"/>
									<MiningField name="float(Income)"/>
									<MiningField name="float(Hours)"/>
								</MiningSchema>
								<Node score="-0.30069116">
									<True/>
									<Node score="-0.20262064">
										<SimplePredicate field="Marital" operator="equal" value="Married"/>
										<Node score="0.09786257">
											<SimplePredicate field="float(Hours)" operator="greaterOrEqual" value="37.5"/>
											<Node score="0.07455336">
												<SimplePredicate field="float(Age)" operator="greaterOrEqual" value="36.5"/>
												<Node score="-0.34691218">
													<SimplePredicate field="Education" operator="equal" value="Yr9"/>
												</Node>
												<Node score="-0.124535225">
													<SimplePredicate field="Occupation" operator="equal" value="Machinist"/>
												</Node>
											</Node>
											<Node score="0.231098">
												<SimplePredicate field="float(Income)" operator="greaterOrEqual" value="59953.125"/>
												<Node score="-0.09167419">
													<SimplePredicate field="float(Income)" operator="greaterOrEqual" value="208808.66"/>
												</Node>
											</Node>
											<Node score="-0.151048">
												<SimplePredicate field="float(Income)" operator="greaterOrEqual" value="16368.47"/>
											</Node>
										</Node>
										<Node score="-0.23415303">
											<SimplePredicate field="float(Income)" operator="greaterOrEqual" value="105568.625"/>
											<Node score="0.0040901466">
												<SimplePredicate field="float(Age)" operator="greaterOrEqual" value="30.5"/>
												<Node score="0.22331099">
													<SimplePredicate field="Occupation" operator="equal" value="Clerical"/>
												</Node>
											</Node>
										</Node>
										<Node score="-0.36170495">
											<SimplePredicate field="float(Income)" operator="greaterOrEqual" value="27061.68"/>
										</Node>
										<Node score="0.100262724">
											<SimplePredicate field="float(Age)" operator="greaterOrEqual" value="43.0"/>
										</Node>
									</Node>
									<Node score="-0.25579116">
										<SimplePredicate field="Occupation" operator="equal" value="Professional"/>
										<Node score="-0.27629763">
											<SimplePredicate field="float(Income)" operator="greaterOrEqual" value="105720.125"/>
											<Node score="0.003885337">
												<SimplePredicate field="float(Age)" operator="greaterOrEqual" value="48.0"/>
											</Node>
										</Node>
										<Node score="0.16170473">
											<SimplePredicate field="float(Age)" operator="greaterOrEqual" value="26.5"/>
											<Node score="-0.16050154">
												<SimplePredicate field="Education" operator="equal" value="Master"/>
											</Node>
										</Node>
									</Node>
									<Node score="-0.27878028">
										<SimplePredicate field="float(Hours)" operator="greaterOrEqual" value="41.0"/>
										<Node score="-0.12137641">
											<SimplePredicate field="float(Age)" operator="greaterOrEqual" value="38.5"/>
											<Node score="0.17254287">
												<SimplePredicate field="Marital" operator="equal" value="Absent"/>
											</Node>
										</Node>
										<Node score="-0.038508642">
											<SimplePredicate field="Education" operator="equal" value="Bachelor"/>
										</Node>
									</Node>
									<Node score="0.07695629">
										<SimplePredicate field="Education" operator="equal" value="Master"/>
									</Node>
									<Node score="-0.10526284">
										<SimplePredicate field="Education" operator="equal" value="Associate"/>
									</Node>
								</Node>
							</TreeModel>
						</Segment>
						<Segment id="7">
							<True/>
							<TreeModel functionName="regression" noTrueChildStrategy="returnLastPrediction" x-mathContext="float">
								<MiningSchema>
									<MiningField name="Employment"/>
									<MiningField name="Education"/>
									<MiningField name="Marital"/>
									<MiningField name="Occupation"/>
									<MiningField name="float(Age)"/>
									<MiningField name="float(Income)"/>
									<MiningField name="float(Hours)"/>
								</MiningSchema>
								<Node score="-0.31155282">
									<True/>
									<Node score="-0.06737185">
										<SimplePredicate field="Marital" operator="equal" value="Married"/>
										<Node score="0.13773459">
											<SimplePredicate field="Occupation" operator="equal" value="Executive"/>
											<Node score="-0.06327073">
												<SimplePredicate field="Employment" operator="equal" value="Consultant"/>
												<Node score="-0.19183572">
													<SimplePredicate field="float(Income)" operator="greaterOrEqual" value="43039.47"/>
												</Node>
												<Node score="0.13548559">
													<SimplePredicate field="float(Income)" operator="greaterOrEqual" value="28761.055"/>
												</Node>
											</Node>
											<Node score="0.31470355">
												<SimplePredicate field="float(Age)" operator="greaterOrEqual" value="57.5"/>
											</Node>
											<Node score="-0.19067724">
												<SimplePredicate field="float(Age)" operator="greaterOrEqual" value="51.5"/>
											</Node>
										</Node>
										<Node score="0.11484585">
											<SimplePredicate field="float(Age)" operator="greaterOrEqual" value="43.5"/>
											<Node score="-0.12648545">
												<SimplePredicate field="float(Age)" operator="greaterOrEqual" value="55.5"/>
												<Node score="0.21387964">
													<SimplePredicate field="Occupation" operator="equal" value="Clerical"/>
												</Node>
											</Node>
											<Node score="-0.13358466">
												<SimplePredicate field="float(Hours)" operator="greaterOrEqual" value="53.5"/>
											</Node>
										</Node>
										<Node score="-0.10833374">
											<SimplePredicate field="Occupation" operator="equal" value="Transport"/>
											<Node score="-0.33870897">
												<SimplePredicate field="float(Age)" operator="greaterOrEqual" value="28.5"/>
											</Node>
										</Node>
										<Node score="0.2882408">
											<SimplePredicate field="float(Hours)" operator="greaterOrEqual" value="69.0"/>
										</Node>
									</Node>
									<Node score="-0.18839298">
										<SimplePredicate field="float(Age)" operator="greaterOrEqual" value="27.5"/>
										<Node score="-0.2772097">
											<SimplePredicate field="float(Income)" operator="greaterOrEqual" value="105720.125"/>
											<Node score="0.0071311966">
												<SimplePredicate field="Occupation" operator="equal" value="Sales"/>
											</Node>
											<Node score="-0.040431503">
												<SimplePredicate field="Occupation" operator="equal" value="Executive"/>
											</Node>
										</Node>
										<Node score="0.06685403">
											<SimplePredicate field="float(Hours)" operator="greaterOrEqual" value="49.5"/>
											<Node score="-0.22418588">
												<SimplePredicate field="Occupation" operator="equal" value="Service"/>
											</Node>
										</Node>
										<Node score="-0.0062713404">
											<SimplePredicate field="Occupation" operator="equal" value="Professional"/>
										</Node>
									</Node>
									<Node score="-0.033589724">
										<SimplePredicate field="Education" operator="equal" value="Associate"/>
									</Node>
									<Node score="-0.047036305">
										<SimplePredicate field="float(Hours)" operator="greaterOrEqual" value="58.0"/>
									</Node>
								</Node>
							</TreeModel>
						</Segment>
						<Segment id="8">
							<True/>
							<TreeModel functionName="regression" noTrueChildStrategy="returnLastPrediction" x-mathContext="float">
								<MiningSchema>
									<MiningField name="Employment"/>
									<MiningField name="Education"/>
									<MiningField name="Marital"/>
									<MiningField name="Occupation"/>
									<MiningField name="float(Age)"/>
									<MiningField name="float(Income)"/>
									<MiningField name="float(Hours)"/>
								</MiningSchema>
								<Node score="-0.28071833">
									<True/>
									<Node score="-0.040184867">
										<SimplePredicate field="Marital" operator="equal" value="Married"/>
										<Node score="0.003055169">
											<SimplePredicate field="Education" operator="equal" value="Master"/>
											<Node score="0.20621426">
												<SimplePredicate field="Occupation" operator="equal" value="Professional"/>
												<Node score="-0.07557863">
													<SimplePredicate field="float(Hours)" operator="greaterOrEqual" value="52.5"/>
												</Node>
												<Node score="-0.06648404">
													<SimplePredicate field="Employment" operator="equal" value="PSState"/>
												</Node>
											</Node>
											<Node score="0.34913182">
												<SimplePredicate field="float(Age)" operator="greaterOrEqual" value="39.0"/>
												<Node score="0.06924649">
													<SimplePredicate field="float(Hours)" operator="greaterOrEqual" value="48.5"/>
												</Node>
											</Node>
										</Node>
										<Node score="0.012625534">
											<SimplePredicate field="float(Hours)" operator="greaterOrEqual" value="37.5"/>
											<Node score="-0.32035118">
												<SimplePredicate field="Education" operator="equal" value="Yr9"/>
											</Node>
											<Node score="-0.23016164">
												<SimplePredicate field="Occupation" operator="equal" value="Farming"/>
											</Node>
										</Node>
										<Node score="-0.20967428">
											<SimplePredicate field="float(Income)" operator="greaterOrEqual" value="105568.625"/>
											<Node score="0.07989173">
												<SimplePredicate field="float(Age)" operator="greaterOrEqual" value="30.5"/>
											</Node>
										</Node>
										<Node score="-0.28004363">
											<SimplePredicate field="float(Income)" operator="greaterOrEqual" value="26086.465"/>
										</Node>
									</Node>
									<Node score="-0.09707213">
										<SimplePredicate field="float(Age)" operator="greaterOrEqual" value="38.5"/>
										<Node score="0.2197503">
											<SimplePredicate field="Education" operator="equal" value="Professional"/>
										</Node>
										<Node score="-0.14891566">
											<SimplePredicate field="float(Income)" operator="greaterOrEqual" value="47019.25"/>
											<Node score="0.13109837">
												<SimplePredicate field="Education" operator="equal" value="Associate"/>
											</Node>
										</Node>
										<Node score="0.25380734">
											<SimplePredicate field="Marital" operator="equal" value="Absent"/>
										</Node>
									</Node>
									<Node score="-0.23858662">
										<SimplePredicate field="Education" operator="equal" value="Bachelor"/>
										<Node score="-0.10901555">
											<SimplePredicate field="float(Age)" operator="greaterOrEqual" value="29.5"/>
											<Node score="0.16178119">
												<SimplePredicate field="float(Income)" operator="greaterOrEqual" value="73480.7"/>
											</Node>
										</Node>
										<Node score="-0.022894233">
											<SimplePredicate field="float(Income)" operator="greaterOrEqual" value="86348.766"/>
										</Node>
									</Node>
									<Node score="-0.19067648">
										<SimplePredicate field="Education" operator="equal" value="Associate"/>
										<Node score="0.060353074">
											<SimplePredicate field="float(Income)" operator="greaterOrEqual" value="79260.28"/>
										</Node>
									</Node>
									<Node score="-0.004663779">
										<SimplePredicate field="float(Hours)" operator="greaterOrEqual" value="58.0"/>
									</Node>
								</Node>
							</TreeModel>
						</Segment>
						<Segment id="9">
							<True/>
							<TreeModel functionName="regression" noTrueChildStrategy="returnLastPrediction" x-mathContext="float">
								<MiningSchema>
									<MiningField name="Education"/>
									<MiningField name="Occupation"/>
									<MiningField name="float(Age)"/>
									<MiningField name="float(Income)"/>
									<MiningField name="float(Hours)"/>
								</MiningSchema>
								<Node score="-0.30796802">
									<True/>
									<Node score="0.030149486">
										<SimplePredicate field="float(Age)" operator="greaterOrEqual" value="27.5"/>
										<Node score="-0.0465179">
											<SimplePredicate field="Occupation" operator="equal" value="Service"/>
											<Node score="-0.04660975">
												<SimplePredicate field="float(Age)" operator="greaterOrEqual" value="57.5"/>
											</Node>
											<Node score="-0.30665603">
												<SimplePredicate field="float(Hours)" operator="greaterOrEqual" value="21.5"/>
												<Node score="-0.07643847">
													<SimplePredicate field="Education" operator="equal" value="College"/>
												</Node>
											</Node>
										</Node>
										<Node score="-0.271823">
											<SimplePredicate field="Occupation" operator="equal" value="Cleaner"/>
											<Node score="0.01340744">
												<SimplePredicate field="float(Age)" operator="greaterOrEqual" value="56.5"/>
											</Node>
										</Node>
										<Node score="-0.24558447">
											<SimplePredicate field="Occupation" operator="equal" value="Transport"/>
											<Node score="0.016958768">
												<SimplePredicate field="float(Age)" operator="greaterOrEqual" value="46.5"/>
											</Node>
										</Node>
										<Node score="-0.12441549">
											<SimplePredicate field="Occupation" operator="equal" value="Machinist"/>
										</Node>
									</Node>
									<Node score="-0.23847598">
										<SimplePredicate field="float(Age)" operator="greaterOrEqual" value="24.5"/>
										<Node score="-0.17184258">
											<SimplePredicate field="float(Hours)" operator="greaterOrEqual" value="49.0"/>
											<Node score="0.24725945">
												<SimplePredicate field="Education" operator="equal" value="HSgrad"/>
											</Node>
											<Node score="0.0047027087">
												<SimplePredicate field="float(Income)" operator="greaterOrEqual" value="58690.992"/>
											</Node>
										</Node>
										<Node score="0.13441963">
											<SimplePredicate field="Education" operator="equal" value="College"/>
											<Node score="-0.15774491">
												<SimplePredicate field="float(Age)" operator="greaterOrEqual" value="25.5"/>
											</Node>
										</Node>
										<Node score="-0.037824173">
											<SimplePredicate field="float(Hours)" operator="greaterOrEqual" value="41.0"/>
										</Node>
									</Node>
									<Node score="0.00887923">
										<SimplePredicate field="Education" operator="equal" value="Associate"/>
									</Node>
									<Node score="-0.09502467">
										<SimplePredicate field="Occupation" operator="equal" value="Professional"/>
									</Node>
								</Node>
							</TreeModel>
						</Segment>
						<Segment id="10">
							<True/>
							<TreeModel functionName="regression" noTrueChildStrategy="returnLastPrediction" x-mathContext="float">
								<MiningSchema>
									<MiningField name="Employment"/>
									<MiningField name="Education"/>
									<MiningField name="Marital"/>
									<MiningField name="Occupation"/>
									<MiningField name="float(Age)"/>
									<MiningField name="float(Income)"/>
									<MiningField name="float(Hours)"/>
								</MiningSchema>
								<Node score="-0.30402347">
									<True/>
									<Node score="0.08913496">
										<SimplePredicate field="Marital" operator="equal" value="Married"/>
										<Node score="0.23421583">
											<SimplePredicate field="float(Income)" operator="greaterOrEqual" value="59640.008"/>
											<Node score="-0.031579472">
												<SimplePredicate field="float(Income)" operator="greaterOrEqual" value="167403.16"/>
												<Node score="-0.29644695">
													<SimplePredicate field="float(Age)" operator="greaterOrEqual" value="50.0"/>
												</Node>
												<Node score="0.23758586">
													<SimplePredicate field="float(Age)" operator="greaterOrEqual" value="42.5"/>
												</Node>
											</Node>
											<Node score="-0.10695111">
												<SimplePredicate field="Occupation" operator="equal" value="Service"/>
											</Node>
											<Node score="-0.09263404">
												<SimplePredicate field="Occupation" operator="equal" value="Transport"/>
											</Node>
										</Node>
										<Node score="-0.008120471">
											<SimplePredicate field="float(Hours)" operator="greaterOrEqual" value="37.5"/>
											<Node score="-0.07831419">
												<SimplePredicate field="Occupation" operator="equal" value="Farming"/>
												<Node score="-0.29792368">
													<SimplePredicate field="float(Income)" operator="greaterOrEqual" value="36584.855"/>
												</Node>
											</Node>
											<Node score="0.1466508">
												<SimplePredicate field="Education" operator="equal" value="Master"/>
											</Node>
										</Node>
										<Node score="-0.026556537">
											<SimplePredicate field="float(Income)" operator="greaterOrEqual" value="27061.68"/>
											<Node score="-0.30501786">
												<SimplePredicate field="float(Hours)" operator="greaterOrEqual" value="15.5"/>
											</Node>
										</Node>
										<Node score="-0.2117471">
											<SimplePredicate field="Education" operator="equal" value="HSgrad"/>
										</Node>
									</Node>
									<Node score="-0.26232788">
										<SimplePredicate field="float(Hours)" operator="greaterOrEqual" value="35.5"/>
										<Node score="-0.23368342">
											<SimplePredicate field="float(Income)" operator="greaterOrEqual" value="105708.875"/>
											<Node score="0.08671817">
												<SimplePredicate field="Marital" operator="equal" value="Widowed"/>
											</Node>
											<Node score="0.0428002">
												<SimplePredicate field="Education" operator="equal" value="Associate"/>
											</Node>
										</Node>
										<Node score="0.38189942">
											<SimplePredicate field="float(Income)" operator="greaterOrEqual" value="86429.93"/>
											<Node score="-0.0022975327">
												<SimplePredicate field="float(Income)" operator="greaterOrEqual" value="91914.06"/>
											</Node>
										</Node>
										<Node score="-0.040959686">
											<SimplePredicate field="float(Age)" operator="greaterOrEqual" value="27.5"/>
										</Node>
									</Node>
									<Node score="0.06024235">
										<SimplePredicate field="Employment" operator="equal" value="Consultant"/>
									</Node>
								</Node>
							</TreeModel>
						</Segment>
						<Segment id="11">
							<True/>
							<TreeModel functionName="regression" noTrueChildStrategy="returnLastPrediction" x-mathContext="float">
								<MiningSchema>
									<MiningField name="Education"/>
									<MiningField name="Occupation"/>
									<MiningField name="Gender"/>
									<MiningField name="float(Age)"/>
									<MiningField name="float(Income)"/>
									<MiningField name="float(Hours)"/>
								</MiningSchema>
								<Node score="-0.28851736">
									<True/>
									<Node score="-0.012849425">
										<SimplePredicate field="float(Age)" operator="greaterOrEqual" value="24.5"/>
										<Node score="-0.04570467">
											<SimplePredicate field="Occupation" operator="equal" value="Service"/>
											<Node score="-0.12266898">
												<SimplePredicate field="float(Age)" operator="greaterOrEqual" value="53.5"/>
												<Node score="0.08450212">
													<SimplePredicate field="float(Income)" operator="greaterOrEqual" value="56505.23"/>
												</Node>
											</Node>
											<Node score="-0.18485898">
												<SimplePredicate field="Education" operator="equal" value="College"/>
												<Node score="0.0325681">
													<SimplePredicate field="Gender" operator="equal" value="Male"/>
												</Node>
											</Node>
											<Node score="-0.2882231">
												<SimplePredicate field="float(Hours)" operator="greaterOrEqual" value="30.5"/>
											</Node>
										</Node>
										<Node score="0.33334512">
											<SimplePredicate field="Education" operator="equal" value="Professional"/>
											<Node score="0.035718028">
												<SimplePredicate field="float(Income)" operator="greaterOrEqual" value="49228.32"/>
											</Node>
										</Node>
										<Node score="-0.28266585">
											<SimplePredicate field="Education" operator="equal" value="Yr7t8"/>
										</Node>
										<Node score="0.18780641">
											<SimplePredicate field="Occupation" operator="equal" value="Protective"/>
										</Node>
									</Node>
									<Node score="0.014222278">
										<SimplePredicate field="Education" operator="equal" value="Associate"/>
									</Node>
									<Node score="-0.066159524">
										<SimplePredicate field="Occupation" operator="equal" value="Professional"/>
									</Node>
								</Node>
							</TreeModel>
						</Segment>
						<Segment id="12">
							<True/>
							<TreeModel functionName="regression" noTrueChildStrategy="returnLastPrediction" x-mathContext="float">
								<MiningSchema>
									<MiningField name="Employment"/>
									<MiningField name="Education"/>
									<MiningField name="Marital"/>
									<MiningField name="float(Age)"/>
									<MiningField name="float(Income)"/>
									<MiningField name="float(Hours)"/>
								</MiningSchema>
								<Node score="-0.29962435">
									<True/>
									<Node score="0.0069028134">
										<SimplePredicate field="float(Hours)" operator="greaterOrEqual" value="37.5"/>
										<Node score="-0.279963">
											<SimplePredicate field="Education" operator="equal" value="Yr9"/>
										</Node>
										<Node score="-0.06113042">
											<SimplePredicate field="Marital" operator="equal" value="Married"/>
											<Node score="0.31971225">
												<SimplePredicate field="float(Income)" operator="greaterOrEqual" value="36186.867"/>
												<Node score="0.0450216">
													<SimplePredicate field="float(Income)" operator="greaterOrEqual" value="37564.87"/>
												</Node>
											</Node>
											<Node score="0.0759345">
												<SimplePredicate field="float(Hours)" operator="greaterOrEqual" value="49.5"/>
											</Node>
										</Node>
										<Node score="-0.27929175">
											<SimplePredicate field="Education" operator="equal" value="College"/>
											<Node score="0.0017984292">
												<SimplePredicate field="float(Age)" operator="greaterOrEqual" value="46.5"/>
											</Node>
										</Node>
										<Node score="-0.15853111">
											<SimplePredicate field="float(Income)" operator="greaterOrEqual" value="138597.92"/>
										</Node>
									</Node>
									<Node score="0.1616484">
										<SimplePredicate field="float(Age)" operator="greaterOrEqual" value="31.5"/>
										<Node score="-0.28331757">
											<SimplePredicate field="Education" operator="equal" value="HSgrad"/>
											<Node score="-0.055640757">
												<SimplePredicate field="float(Income)" operator="greaterOrEqual" value="197734.9"/>
											</Node>
											<Node score="-0.06594957">
												<SimplePredicate field="Employment" operator="equal" value="Consultant"/>
											</Node>
										</Node>
										<Node score="-0.25687757">
											<SimplePredicate field="Employment" operator="equal" value="PSState"/>
										</Node>
										<Node score="-0.041758314">
											<SimplePredicate field="float(Income)" operator="greaterOrEqual" value="27061.68"/>
										</Node>
									</Node>
								</Node>
							</TreeModel>
						</Segment>
						<Segment id="13">
							<True/>
							<TreeModel functionName="regression" noTrueChildStrategy="returnLastPrediction" x-mathContext="float">
								<MiningSchema>
									<MiningField name="Occupation"/>
									<MiningField name="float(Age)"/>
									<MiningField name="float(Income)"/>
									<MiningField name="float(Hours)"/>
								</MiningSchema>
								<Node score="-0.25451985">
									<True/>
									<Node score="0.021833185">
										<SimplePredicate field="float(Age)" operator="greaterOrEqual" value="23.5"/>
										<Node score="-0.055254586">
											<SimplePredicate field="Occupation" operator="equal" value="Service"/>
											<Node score="-0.10030014">
												<SimplePredicate field="float(Age)" operator="greaterOrEqual" value="53.5"/>
												<Node score="0.08132335">
													<SimplePredicate field="float(Income)" operator="greaterOrEqual" value="56505.23"/>
												</Node>
											</Node>
											<Node score="-0.28881934">
												<SimplePredicate field="float(Income)" operator="greaterOrEqual" value="27157.488"/>
												<Node score="-0.058523707">
													<SimplePredicate field="float(Age)" operator="greaterOrEqual" value="41.5"/>
												</Node>
											</Node>
										</Node>
										<Node score="-0.07558212">
											<SimplePredicate field="Occupation" operator="equal" value="Cleaner"/>
											<Node score="0.018060729">
												<SimplePredicate field="float(Hours)" operator="greaterOrEqual" value="44.5"/>
											</Node>
											<Node score="-0.25322738">
												<SimplePredicate field="float(Income)" operator="greaterOrEqual" value="31260.85"/>
											</Node>
										</Node>
										<Node score="-0.2360396">
											<SimplePredicate field="Occupation" operator="equal" value="Transport"/>
											<Node score="0.005266318">
												<SimplePredicate field="float(Age)" operator="greaterOrEqual" value="43.5"/>
											</Node>
										</Node>
										<Node score="-0.08547788">
											<SimplePredicate field="Occupation" operator="equal" value="Machinist"/>
										</Node>
									</Node>
									<Node score="-0.03231088">
										<SimplePredicate field="Occupation" operator="equal" value="Cleaner"/>
									</Node>
								</Node>
							</TreeModel>
						</Segment>
						<Segment id="14">
							<True/>
							<TreeModel functionName="regression" noTrueChildStrategy="returnLastPrediction" x-mathContext="float">
								<MiningSchema>
									<MiningField name="Employment"/>
									<MiningField name="Education"/>
									<MiningField name="float(Age)"/>
									<MiningField name="float(Income)"/>
									<MiningField name="float(Hours)"/>
								</MiningSchema>
								<Node score="-0.28022918">
									<True/>
									<Node score="-0.03346459">
										<SimplePredicate field="float(Hours)" operator="greaterOrEqual" value="37.5"/>
										<Node score="-0.24983563">
											<SimplePredicate field="Education" operator="equal" value="Yr9"/>
										</Node>
										<Node score="0.0540944">
											<SimplePredicate field="Education" operator="equal" value="Yr10"/>
											<Node score="-0.27763414">
												<SimplePredicate field="float(Income)" operator="greaterOrEqual" value="37934.49"/>
											</Node>
											<Node score="-0.12790221">
												<SimplePredicate field="float(Age)" operator="greaterOrEqual" value="42.5"/>
											</Node>
										</Node>
										<Node score="-0.23860222">
											<SimplePredicate field="Education" operator="equal" value="Yr7t8"/>
										</Node>
										<Node score="0.033477437">
											<SimplePredicate field="float(Age)" operator="greaterOrEqual" value="36.5"/>
										</Node>
									</Node>
									<Node score="-0.19171076">
										<SimplePredicate field="float(Age)" operator="greaterOrEqual" value="31.5"/>
										<Node score="0.18887772">
											<SimplePredicate field="float(Income)" operator="greaterOrEqual" value="265026.03"/>
										</Node>
										<Node score="-0.21811897">
											<SimplePredicate field="Education" operator="equal" value="Bachelor"/>
											<Node score="0.20805633">
												<SimplePredicate field="Employment" operator="equal" value="Private"/>
											</Node>
										</Node>
										<Node score="0.03635188">
											<SimplePredicate field="Employment" operator="equal" value="Consultant"/>
										</Node>
									</Node>
								</Node>
							</TreeModel>
						</Segment>
						<Segment id="15">
							<True/>
							<TreeModel functionName="regression" noTrueChildStrategy="returnLastPrediction" x-mathContext="float">
								<MiningSchema>
									<MiningField name="Employment"/>
									<MiningField name="Education"/>
									<MiningField name="Marital"/>
									<MiningField name="Occupation"/>
									<MiningField name="Gender"/>
									<MiningField name="float(Age)"/>
									<MiningField name="float(Income)"/>
								</MiningSchema>
								<Node score="-0.17864344">
									<True/>
									<Node score="-0.18222782">
										<SimplePredicate field="Marital" operator="equal" value="Married"/>
										<Node score="0.17736408">
											<SimplePredicate field="float(Income)" operator="greaterOrEqual" value="60990.605"/>
											<Node score="-0.028454034">
												<SimplePredicate field="Occupation" operator="equal" value="Machinist"/>
												<Node score="-0.21202475">
													<SimplePredicate field="float(Income)" operator="greaterOrEqual" value="172217.56"/>
												</Node>
											</Node>
											<Node score="-0.11058239">
												<SimplePredicate field="Occupation" operator="equal" value="Service"/>
											</Node>
											<Node score="-0.0021009143">
												<SimplePredicate field="float(Age)" operator="greaterOrEqual" value="52.0"/>
											</Node>
										</Node>
										<Node score="-0.29796633">
											<SimplePredicate field="float(Income)" operator="greaterOrEqual" value="20620.316"/>
											<Node score="0.018891858">
												<SimplePredicate field="float(Income)" operator="greaterOrEqual" value="26403.93"/>
												<Node score="-0.1278615">
													<SimplePredicate field="Employment" operator="equal" value="Consultant"/>
												</Node>
											</Node>
											<Node score="0.002206619">
												<SimplePredicate field="float(Age)" operator="greaterOrEqual" value="44.5"/>
											</Node>
										</Node>
										<Node score="-0.22545137">
											<SimplePredicate field="Education" operator="equal" value="HSgrad"/>
											<Node score="0.23127908">
												<SimplePredicate field="float(Income)" operator="greaterOrEqual" value="18714.34"/>
											</Node>
										</Node>
										<Node score="0.18317118">
											<SimplePredicate field="float(Income)" operator="greaterOrEqual" value="4108.185"/>
										</Node>
									</Node>
									<Node score="-0.27058282">
										<SimplePredicate field="Education" operator="equal" value="College"/>
										<Node score="-0.17108336">
											<SimplePredicate field="float(Age)" operator="greaterOrEqual" value="46.5"/>
											<Node score="0.09759844">
												<SimplePredicate field="Gender" operator="equal" value="Male"/>
											</Node>
										</Node>
									</Node>
									<Node score="-0.2298784">
										<SimplePredicate field="Gender" operator="equal" value="Male"/>
										<Node score="0.31110507">
											<SimplePredicate field="float(Income)" operator="greaterOrEqual" value="40502.695"/>
											<Node score="0.007818761">
												<SimplePredicate field="float(Income)" operator="greaterOrEqual" value="50615.21"/>
											</Node>
										</Node>
										<Node score="0.0024453893">
											<SimplePredicate field="Education" operator="equal" value="Bachelor"/>
										</Node>
									</Node>
									<Node score="-0.122328915">
										<SimplePredicate field="Education" operator="equal" value="Bachelor"/>
										<Node score="0.22385283">
											<SimplePredicate field="float(Age)" operator="greaterOrEqual" value="41.5"/>
										</Node>
									</Node>
									<Node score="0.08141272">
										<SimplePredicate field="float(Age)" operator="greaterOrEqual" value="63.5"/>
									</Node>
								</Node>
							</TreeModel>
						</Segment>
						<Segment id="16">
							<True/>
							<TreeModel functionName="regression" noTrueChildStrategy="returnLastPrediction" x-mathContext="float">
								<MiningSchema>
									<MiningField name="Employment"/>
									<MiningField name="Education"/>
									<MiningField name="Occupation"/>
									<MiningField name="float(Age)"/>
									<MiningField name="float(Income)"/>
									<MiningField name="float(Hours)"/>
								</MiningSchema>
								<Node score="-0.31013113">
									<True/>
									<Node score="-0.31093">
										<SimplePredicate field="float(Hours)" operator="greaterOrEqual" value="37.5"/>
										<Node score="0.038448654">
											<SimplePredicate field="Education" operator="equal" value="Yr10"/>
											<Node score="-0.2513588">
												<SimplePredicate field="float(Income)" operator="greaterOrEqual" value="37934.49"/>
											</Node>
											<Node score="-0.12476135">
												<SimplePredicate field="float(Age)" operator="greaterOrEqual" value="42.5"/>
											</Node>
										</Node>
										<Node score="0.23690923">
											<SimplePredicate field="float(Income)" operator="greaterOrEqual" value="12646.99"/>
											<Node score="-0.16179606">
												<SimplePredicate field="float(Income)" operator="greaterOrEqual" value="20620.316"/>
												<Node score="0.012666997">
													<SimplePredicate field="float(Income)" operator="greaterOrEqual" value="26133.26"/>
												</Node>
											</Node>
											<Node score="0.01055759">
												<SimplePredicate field="Education" operator="equal" value="HSgrad"/>
											</Node>
										</Node>
										<Node score="0.20938367">
											<SimplePredicate field="Occupation" operator="equal" value="Sales"/>
										</Node>
										<Node score="0.09965098">
											<SimplePredicate field="float(Age)" operator="greaterOrEqual" value="53.0"/>
										</Node>
									</Node>
									<Node score="-0.11024246">
										<SimplePredicate field="float(Age)" operator="greaterOrEqual" value="40.5"/>
										<Node score="-0.29162243">
											<SimplePredicate field="float(Hours)" operator="greaterOrEqual" value="16.5"/>
											<Node score="0.1418689">
												<SimplePredicate field="Employment" operator="equal" value="Consultant"/>
												<Node score="-0.041701462">
													<SimplePredicate field="float(Income)" operator="greaterOrEqual" value="44590.688"/>
												</Node>
											</Node>
											<Node score="-0.058291275">
												<SimplePredicate field="Employment" operator="equal" value="Private"/>
											</Node>
										</Node>
										<Node score="0.24057938">
											<SimplePredicate field="float(Hours)" operator="greaterOrEqual" value="13.0"/>
										</Node>
										<Node score="0.1258576">
											<SimplePredicate field="Occupation" operator="equal" value="Executive"/>
										</Node>
									</Node>
									<Node score="0.09609513">
										<SimplePredicate field="float(Income)" operator="greaterOrEqual" value="284437.78"/>
									</Node>
									<Node score="-0.0029382852">
										<SimplePredicate field="Education" operator="equal" value="Bachelor"/>
									</Node>
								</Node>
							</TreeModel>
						</Segment>
						<Segment id="17">
							<True/>
							<TreeModel functionName="regression" noTrueChildStrategy="returnLastPrediction" x-mathContext="float">
								<MiningSchema>
									<MiningField name="Employment"/>
									<MiningField name="Education"/>
									<MiningField name="Occupation"/>
									<MiningField name="float(Age)"/>
									<MiningField name="float(Income)"/>
									<MiningField name="float(Hours)"/>
								</MiningSchema>
								<Node score="-0.24639323">
									<True/>
									<Node score="-0.038651556">
										<SimplePredicate field="float(Age)" operator="greaterOrEqual" value="27.5"/>
										<Node score="-0.043470904">
											<SimplePredicate field="Occupation" operator="equal" value="Protective"/>
											<Node score="-0.102370866">
												<SimplePredicate field="float(Age)" operator="greaterOrEqual" value="58.0"/>
											</Node>
											<Node score="0.38676527">
												<SimplePredicate field="float(Age)" operator="greaterOrEqual" value="37.5"/>
											</Node>
										</Node>
										<Node score="0.3741845">
											<SimplePredicate field="Occupation" operator="equal" value="Sales"/>
											<Node score="-0.11735891">
												<SimplePredicate field="float(Income)" operator="greaterOrEqual" value="28606.365"/>
												<Node score="0.064873084">
													<SimplePredicate field="float(Age)" operator="greaterOrEqual" value="37.5"/>
												</Node>
											</Node>
											<Node score="0.08923738">
												<SimplePredicate field="Employment" operator="equal" value="Private"/>
											</Node>
										</Node>
										<Node score="-0.004843654">
											<SimplePredicate field="Occupation" operator="equal" value="Executive"/>
											<Node score="0.11696726">
												<SimplePredicate field="Education" operator="equal" value="Bachelor"/>
											</Node>
										</Node>
										<Node score="0.19743274">
											<SimplePredicate field="Education" operator="equal" value="Professional"/>
										</Node>
									</Node>
									<Node score="-0.20431152">
										<SimplePredicate field="float(Income)" operator="greaterOrEqual" value="64044.586"/>
										<Node score="0.03782956">
											<SimplePredicate field="float(Hours)" operator="greaterOrEqual" value="39.0"/>
											<Node score="-0.16157472">
												<SimplePredicate field="float(Income)" operator="greaterOrEqual" value="92143.85"/>
												<Node score="0.16719599">
													<SimplePredicate field="float(Hours)" operator="greaterOrEqual" value="44.5"/>
												</Node>
											</Node>
											<Node score="0.22644313">
												<SimplePredicate field="float(Income)" operator="greaterOrEqual" value="79292.7"/>
											</Node>
										</Node>
									</Node>
									<Node score="-0.28732982">
										<SimplePredicate field="float(Income)" operator="greaterOrEqual" value="50790.97"/>
									</Node>
									<Node score="0.1283894">
										<SimplePredicate field="float(Income)" operator="greaterOrEqual" value="30090.75"/>
										<Node score="-0.08457662">
											<SimplePredicate field="float(Income)" operator="greaterOrEqual" value="34834.47"/>
										</Node>
									</Node>
									<Node score="-0.028310345">
										<SimplePredicate field="float(Hours)" operator="greaterOrEqual" value="47.5"/>
									</Node>
								</Node>
							</TreeModel>
						</Segment>
						<Segment id="18">
							<True/>
							<TreeModel functionName="regression" noTrueChildStrategy="returnLastPrediction" x-mathContext="float">
								<MiningSchema>
									<MiningField name="Education"/>
									<MiningField name="Occupation"/>
									<MiningField name="float(Age)"/>
								</MiningSchema>
								<Node score="-0.21003254">
									<True/>
									<Node score="-0.05424633">
										<SimplePredicate field="Education" operator="equal" value="Yr5t6"/>
										<Node score="-0.2691748">
											<SimplePredicate field="float(Age)" operator="greaterOrEqual" value="47.5"/>
										</Node>
									</Node>
									<Node score="-0.2279636">
										<SimplePredicate field="Education" operator="equal" value="Yr7t8"/>
									</Node>
									<Node score="0.006354876">
										<SimplePredicate field="float(Age)" operator="greaterOrEqual" value="24.5"/>
										<Node score="-0.07620972">
											<SimplePredicate field="Occupation" operator="equal" value="Support"/>
											<Node score="0.240133">
												<SimplePredicate field="float(Age)" operator="greaterOrEqual" value="36.5"/>
											</Node>
										</Node>
										<Node score="-0.12491051">
											<SimplePredicate field="Education" operator="equal" value="Vocational"/>
										</Node>
									</Node>
									<Node score="0.097045474">
										<SimplePredicate field="Education" operator="equal" value="Associate"/>
									</Node>
								</Node>
							</TreeModel>
						</Segment>
						<Segment id="19">
							<True/>
							<TreeModel functionName="regression" noTrueChildStrategy="returnLastPrediction" x-mathContext="float">
								<MiningSchema>
									<MiningField name="Education"/>
									<MiningField name="Marital"/>
									<MiningField name="Occupation"/>
									<MiningField name="float(Age)"/>
									<MiningField name="float(Income)"/>
									<MiningField name="float(Hours)"/>
								</MiningSchema>
								<Node score="-0.043020528">
									<True/>
									<Node score="-0.23047484">
										<SimplePredicate field="Occupation" operator="equal" value="Service"/>
										<Node score="0.042635877">
											<SimplePredicate field="Marital" operator="equal" value="Married"/>
											<Node score="-0.19963892">
												<SimplePredicate field="float(Income)" operator="greaterOrEqual" value="40015.203"/>
												<Node score="0.29359165">
													<SimplePredicate field="float(Age)" operator="greaterOrEqual" value="41.0"/>
												</Node>
											</Node>
											<Node score="-0.25846428">
												<SimplePredicate field="float(Age)" operator="greaterOrEqual" value="37.5"/>
											</Node>
										</Node>
									</Node>
									<Node score="0.09347492">
										<SimplePredicate field="Education" operator="equal" value="Doctorate"/>
										<Node score="-0.04394132">
											<SimplePredicate field="float(Age)" operator="greaterOrEqual" value="56.0"/>
										</Node>
										<Node score="0.25652343">
											<SimplePredicate field="float(Income)" operator="greaterOrEqual" value="52417.188"/>
										</Node>
									</Node>
									<Node score="-0.17608868">
										<SimplePredicate field="Education" operator="equal" value="Master"/>
										<Node score="0.22622387">
											<SimplePredicate field="float(Age)" operator="greaterOrEqual" value="51.5"/>
											<Node score="-0.20103292">
												<SimplePredicate field="float(Income)" operator="greaterOrEqual" value="28671.11"/>
											</Node>
										</Node>
										<Node score="0.23945649">
											<SimplePredicate field="float(Income)" operator="greaterOrEqual" value="22307.814"/>
										</Node>
									</Node>
									<Node score="0.18211909">
										<SimplePredicate field="float(Hours)" operator="greaterOrEqual" value="41.5"/>
										<Node score="0.005893462">
											<SimplePredicate field="float(Hours)" operator="greaterOrEqual" value="44.5"/>
										</Node>
									</Node>
									<Node score="0.10768642">
										<SimplePredicate field="Education" operator="equal" value="Associate"/>
									</Node>
								</Node>
							</TreeModel>
						</Segment>
						<Segment id="20">
							<True/>
							<TreeModel functionName="regression" noTrueChildStrategy="returnLastPrediction" x-mathContext="float">
								<MiningSchema>
									<MiningField name="Employment"/>
									<MiningField name="Education"/>
									<MiningField name="Marital"/>
									<MiningField name="Occupation"/>
									<MiningField name="Gender"/>
									<MiningField name="float(Age)"/>
									<MiningField name="float(Income)"/>
									<MiningField name="float(Hours)"/>
								</MiningSchema>
								<Node score="-0.12082226">
									<True/>
									<Node score="0.02400309">
										<SimplePredicate field="Marital" operator="equal" value="Married"/>
										<Node score="0.06558834">
											<SimplePredicate field="float(Income)" operator="greaterOrEqual" value="59640.008"/>
											<Node score="-0.22775087">
												<SimplePredicate field="Occupation" operator="equal" value="Machinist"/>
												<Node score="0.027301652">
													<SimplePredicate field="Gender" operator="equal" value="Male"/>
												</Node>
											</Node>
											<Node score="0.05584966">
												<SimplePredicate field="float(Income)" operator="greaterOrEqual" value="212917.97"/>
												<Node score="-0.20261528">
													<SimplePredicate field="float(Age)" operator="greaterOrEqual" value="47.0"/>
												</Node>
											</Node>
											<Node score="0.23202786">
												<SimplePredicate field="float(Income)" operator="greaterOrEqual" value="98568.13"/>
											</Node>
										</Node>
										<Node score="-0.24068515">
											<SimplePredicate field="Education" operator="equal" value="Yr11"/>
											<Node score="-0.057067376">
												<SimplePredicate field="float(Income)" operator="greaterOrEqual" value="36794.758"/>
											</Node>
										</Node>
										<Node score="0.108702496">
											<SimplePredicate field="float(Age)" operator="greaterOrEqual" value="28.5"/>
											<Node score="0.0025378508">
												<SimplePredicate field="float(Age)" operator="greaterOrEqual" value="31.5"/>
											</Node>
										</Node>
										<Node score="-0.17249754">
											<SimplePredicate field="float(Income)" operator="greaterOrEqual" value="31083.52"/>
										</Node>
									</Node>
									<Node score="-0.2554022">
										<SimplePredicate field="Education" operator="equal" value="College"/>
										<Node score="-0.1715604">
											<SimplePredicate field="Marital" operator="equal" value="Divorced"/>
											<Node score="0.11975426">
												<SimplePredicate field="float(Hours)" operator="greaterOrEqual" value="41.0"/>
											</Node>
										</Node>
									</Node>
									<Node score="-0.06956917">
										<SimplePredicate field="float(Income)" operator="greaterOrEqual" value="116069.71"/>
										<Node score="0.105130106">
											<SimplePredicate field="Education" operator="equal" value="Master"/>
										</Node>
										<Node score="-0.24994117">
											<SimplePredicate field="float(Income)" operator="greaterOrEqual" value="194682.53"/>
										</Node>
									</Node>
									<Node score="-0.017964818">
										<SimplePredicate field="Employment" operator="equal" value="Private"/>
										<Node score="0.19999819">
											<SimplePredicate field="float(Income)" operator="greaterOrEqual" value="88155.266"/>
										</Node>
									</Node>
									<Node score="0.17314875">
										<SimplePredicate field="float(Age)" operator="greaterOrEqual" value="61.5"/>
									</Node>
								</Node>
							</TreeModel>
						</Segment>
						<Segment id="21">
							<True/>
							<TreeModel functionName="regression" noTrueChildStrategy="returnLastPrediction" x-mathContext="float">
								<MiningSchema>
									<MiningField name="Employment"/>
									<MiningField name="Education"/>
									<MiningField name="float(Age)"/>
									<MiningField name="float(Income)"/>
									<MiningField name="float(Hours)"/>
								</MiningSchema>
								<Node score="-0.27877602">
									<True/>
									<Node score="-0.0035365827">
										<SimplePredicate field="float(Hours)" operator="greaterOrEqual" value="37.5"/>
										<Node score="-0.2158723">
											<SimplePredicate field="Education" operator="equal" value="Yr9"/>
										</Node>
										<Node score="0.03965333">
											<SimplePredicate field="Employment" operator="equal" value="PSState"/>
											<Node score="0.3598127">
												<SimplePredicate field="float(Age)" operator="greaterOrEqual" value="45.5"/>
												<Node score="-0.116316125">
													<SimplePredicate field="float(Age)" operator="greaterOrEqual" value="57.5"/>
												</Node>
											</Node>
											<Node score="-0.14991415">
												<SimplePredicate field="float(Income)" operator="greaterOrEqual" value="67260.61"/>
											</Node>
										</Node>
										<Node score="-0.035901733">
											<SimplePredicate field="Education" operator="equal" value="Yr10"/>
											<Node score="-0.26026028">
												<SimplePredicate field="float(Age)" operator="greaterOrEqual" value="42.5"/>
											</Node>
										</Node>
										<Node score="0.096016295">
											<SimplePredicate field="float(Age)" operator="greaterOrEqual" value="57.5"/>
										</Node>
									</Node>
									<Node score="-0.0031268245">
										<SimplePredicate field="float(Age)" operator="greaterOrEqual" value="40.5"/>
										<Node score="-0.20865507">
											<SimplePredicate field="float(Age)" operator="greaterOrEqual" value="66.5"/>
											<Node score="-0.03994702">
												<SimplePredicate field="Employment" operator="equal" value="Consultant"/>
											</Node>
										</Node>
										<Node score="0.10439405">
											<SimplePredicate field="float(Hours)" operator="greaterOrEqual" value="16.5"/>
											<Node score="-0.0947896">
												<SimplePredicate field="float(Income)" operator="greaterOrEqual" value="26086.465"/>
											</Node>
										</Node>
										<Node score="0.20970094">
											<SimplePredicate field="float(Hours)" operator="greaterOrEqual" value="9.0"/>
										</Node>
									</Node>
									<Node score="0.022387937">
										<SimplePredicate field="Education" operator="equal" value="Bachelor"/>
									</Node>
									<Node score="-0.04218966">
										<SimplePredicate field="float(Income)" operator="greaterOrEqual" value="262734.34"/>
									</Node>
								</Node>
							</TreeModel>
						</Segment>
						<Segment id="22">
							<True/>
							<TreeModel functionName="regression" noTrueChildStrategy="returnLastPrediction" x-mathContext="float">
								<MiningSchema>
									<MiningField name="Education"/>
									<MiningField name="float(Income)"/>
									<MiningField name="float(Hours)"/>
								</MiningSchema>
								<Node score="-0.0763377">
									<True/>
									<Node score="0.24705091">
										<SimplePredicate field="Education" operator="equal" value="Professional"/>
										<Node score="0.01067901">
											<SimplePredicate field="float(Income)" operator="greaterOrEqual" value="49228.32"/>
										</Node>
									</Node>
									<Node score="-0.19205283">
										<SimplePredicate field="Education" operator="equal" value="Yr5t6"/>
									</Node>
									<Node score="-0.20313671">
										<SimplePredicate field="Education" operator="equal" value="Yr7t8"/>
									</Node>
									<Node score="-0.20883262">
										<SimplePredicate field="float(Hours)" operator="greaterOrEqual" value="82.0"/>
									</Node>
									<Node score="0.006776513">
										<SimplePredicate field="float(Hours)" operator="greaterOrEqual" value="34.5"/>
									</Node>
								</Node>
							</TreeModel>
						</Segment>
						<Segment id="23">
							<True/>
							<TreeModel functionName="regression" noTrueChildStrategy="returnLastPrediction" x-mathContext="float">
								<MiningSchema>
									<MiningField name="Occupation"/>
									<MiningField name="float(Age)"/>
									<MiningField name="float(Income)"/>
									<MiningField name="float(Hours)"/>
								</MiningSchema>
								<Node score="0.0120743355">
									<True/>
									<Node score="-0.0035953403">
										<SimplePredicate field="Occupation" operator="equal" value="Service"/>
										<Node score="0.020500803">
											<SimplePredicate field="float(Age)" operator="greaterOrEqual" value="53.5"/>
										</Node>
										<Node score="-0.24704663">
											<SimplePredicate field="float(Income)" operator="greaterOrEqual" value="27157.488"/>
											<Node score="-0.033091415">
												<SimplePredicate field="float(Age)" operator="greaterOrEqual" value="41.5"/>
											</Node>
										</Node>
									</Node>
									<Node score="-0.13809198">
										<SimplePredicate field="Occupation" operator="equal" value="Cleaner"/>
										<Node score="-0.26001868">
											<SimplePredicate field="float(Income)" operator="greaterOrEqual" value="34738.73"/>
											<Node score="-0.022916554">
												<SimplePredicate field="float(Income)" operator="greaterOrEqual" value="71392.7"/>
											</Node>
										</Node>
										<Node score="0.17186233">
											<SimplePredicate field="float(Hours)" operator="greaterOrEqual" value="44.5"/>
										</Node>
									</Node>
									<Node score="-0.2833261">
										<SimplePredicate field="float(Age)" operator="greaterOrEqual" value="66.5"/>
										<Node score="0.027488576">
											<SimplePredicate field="Occupation" operator="equal" value="Executive"/>
										</Node>
										<Node score="-0.076185495">
											<SimplePredicate field="float(Age)" operator="greaterOrEqual" value="71.5"/>
										</Node>
									</Node>
									<Node score="0.23960023">
										<SimplePredicate field="float(Age)" operator="greaterOrEqual" value="65.5"/>
									</Node>
									<Node score="-0.13114282">
										<SimplePredicate field="Occupation" operator="equal" value="Farming"/>
									</Node>
								</Node>
							</TreeModel>
						</Segment>
						<Segment id="24">
							<True/>
							<TreeModel functionName="regression" noTrueChildStrategy="returnLastPrediction" x-mathContext="float">
								<MiningSchema>
									<MiningField name="Employment"/>
									<MiningField name="Education"/>
									<MiningField name="Marital"/>
									<MiningField name="Occupation"/>
									<MiningField name="Gender"/>
									<MiningField name="float(Age)"/>
									<MiningField name="float(Income)"/>
									<MiningField name="float(Hours)"/>
								</MiningSchema>
								<Node score="-0.22334734">
									<True/>
									<Node score="0.24558613">
										<SimplePredicate field="Education" operator="equal" value="Doctorate"/>
										<Node score="-0.01953817">
											<SimplePredicate field="float(Age)" operator="greaterOrEqual" value="56.0"/>
										</Node>
										<Node score="-0.0699673">
											<SimplePredicate field="float(Income)" operator="greaterOrEqual" value="38299.43"/>
											<Node score="0.14760722">
												<SimplePredicate field="float(Income)" operator="greaterOrEqual" value="73932.734"/>
											</Node>
										</Node>
									</Node>
									<Node score="0.013807074">
										<SimplePredicate field="Marital" operator="equal" value="Married"/>
										<Node score="-0.035442006">
											<SimplePredicate field="Occupation" operator="equal" value="Support"/>
											<Node score="0.22057728">
												<SimplePredicate field="float(Age)" operator="greaterOrEqual" value="36.5"/>
											</Node>
										</Node>
										<Node score="-0.058606744">
											<SimplePredicate field="Employment" operator="equal" value="PSState"/>
											<Node score="0.19503653">
												<SimplePredicate field="float(Hours)" operator="greaterOrEqual" value="39.0"/>
											</Node>
										</Node>
										<Node score="-0.045608476">
											<SimplePredicate field="float(Age)" operator="greaterOrEqual" value="48.5"/>
										</Node>
									</Node>
									<Node score="-0.018454982">
										<SimplePredicate field="float(Hours)" operator="greaterOrEqual" value="39.0"/>
										<Node score="0.25855806">
											<SimplePredicate field="float(Age)" operator="greaterOrEqual" value="56.5"/>
											<Node score="-0.03790412">
												<SimplePredicate field="Gender" operator="equal" value="Male"/>
											</Node>
										</Node>
										<Node score="-0.20532022">
											<SimplePredicate field="Education" operator="equal" value="College"/>
										</Node>
									</Node>
									<Node score="0.07139456">
										<SimplePredicate field="Employment" operator="equal" value="Consultant"/>
									</Node>
								</Node>
							</TreeModel>
						</Segment>
						<Segment id="25">
							<True/>
							<TreeModel functionName="regression" noTrueChildStrategy="returnLastPrediction" x-mathContext="float">
								<MiningSchema>
									<MiningField name="Education"/>
									<MiningField name="float(Age)"/>
									<MiningField name="float(Income)"/>
									<MiningField name="float(Hours)"/>
								</MiningSchema>
								<Node score="-0.04945586">
									<True/>
									<Node score="-0.02296073">
										<SimplePredicate field="Education" operator="equal" value="Professional"/>
										<Node score="0.20967652">
											<SimplePredicate field="float(Hours)" operator="greaterOrEqual" value="44.0"/>
										</Node>
									</Node>
									<Node score="0.27931523">
										<SimplePredicate field="float(Income)" operator="greaterOrEqual" value="12646.99"/>
										<Node score="-0.3140295">
											<SimplePredicate field="float(Income)" operator="greaterOrEqual" value="21264.176"/>
											<Node score="-0.012007508">
												<SimplePredicate field="float(Income)" operator="greaterOrEqual" value="22128.32"/>
												<Node score="0.097156815">
													<SimplePredicate field="Education" operator="equal" value="Master"/>
												</Node>
											</Node>
										</Node>
										<Node score="-0.13427794">
											<SimplePredicate field="Education" operator="equal" value="HSgrad"/>
											<Node score="0.09972608">
												<SimplePredicate field="float(Income)" operator="greaterOrEqual" value="18714.34"/>
											</Node>
										</Node>
										<Node score="0.07945004">
											<SimplePredicate field="float(Income)" operator="greaterOrEqual" value="15243.35"/>
										</Node>
									</Node>
									<Node score="0.17964435">
										<SimplePredicate field="float(Hours)" operator="greaterOrEqual" value="54.5"/>
									</Node>
									<Node score="-0.01918062">
										<SimplePredicate field="Education" operator="equal" value="Bachelor"/>
										<Node score="0.16228896">
											<SimplePredicate field="float(Age)" operator="greaterOrEqual" value="43.5"/>
										</Node>
									</Node>
									<Node score="-0.2829557">
										<SimplePredicate field="float(Income)" operator="greaterOrEqual" value="5330.79"/>
									</Node>
								</Node>
							</TreeModel>
						</Segment>
						<Segment id="26">
							<True/>
							<TreeModel functionName="regression" noTrueChildStrategy="returnLastPrediction" x-mathContext="float">
								<MiningSchema>
									<MiningField name="Employment"/>
									<MiningField name="Marital"/>
									<MiningField name="Occupation"/>
									<MiningField name="float(Age)"/>
									<MiningField name="float(Income)"/>
									<MiningField name="float(Hours)"/>
								</MiningSchema>
								<Node score="-0.16088673">
									<True/>
									<Node score="-0.09453424">
										<SimplePredicate field="Occupation" operator="equal" value="Protective"/>
										<Node score="0.299791">
											<SimplePredicate field="float(Age)" operator="greaterOrEqual" value="32.5"/>
											<Node score="-0.031274255">
												<SimplePredicate field="float(Age)" operator="greaterOrEqual" value="56.0"/>
											</Node>
										</Node>
									</Node>
									<Node score="-0.0039207935">
										<SimplePredicate field="Marital" operator="equal" value="Divorced"/>
										<Node score="-0.2193968">
											<SimplePredicate field="Occupation" operator="equal" value="Clerical"/>
										</Node>
										<Node score="0.19822572">
											<SimplePredicate field="float(Income)" operator="greaterOrEqual" value="86452.305"/>
											<Node score="-0.081285365">
												<SimplePredicate field="float(Age)" operator="greaterOrEqual" value="44.5"/>
											</Node>
										</Node>
										<Node score="-0.23535468">
											<SimplePredicate field="float(Income)" operator="greaterOrEqual" value="63525.684"/>
										</Node>
									</Node>
									<Node score="-0.13682713">
										<SimplePredicate field="Employment" operator="equal" value="PSLocal"/>
										<Node score="-0.06689305">
											<SimplePredicate field="float(Income)" operator="greaterOrEqual" value="30214.879"/>
											<Node score="-0.33493242">
												<SimplePredicate field="float(Hours)" operator="greaterOrEqual" value="41.0"/>
											</Node>
										</Node>
										<Node score="0.17866576">
											<SimplePredicate field="float(Income)" operator="greaterOrEqual" value="19484.65"/>
										</Node>
									</Node>
									<Node score="0.011108756">
										<SimplePredicate field="Occupation" operator="equal" value="Cleaner"/>
										<Node score="-0.18841271">
											<SimplePredicate field="float(Age)" operator="greaterOrEqual" value="33.5"/>
										</Node>
									</Node>
									<Node score="0.014439881">
										<SimplePredicate field="float(Age)" operator="greaterOrEqual" value="23.5"/>
									</Node>
								</Node>
							</TreeModel>
						</Segment>
						<Segment id="27">
							<True/>
							<TreeModel functionName="regression" noTrueChildStrategy="returnLastPrediction" x-mathContext="float">
								<MiningSchema>
									<MiningField name="Education"/>
									<MiningField name="float(Age)"/>
									<MiningField name="float(Hours)"/>
								</MiningSchema>
								<Node score="0.008484115">
									<True/>
									<Node score="-0.1858185">
										<SimplePredicate field="Education" operator="equal" value="Yr7t8"/>
									</Node>
									<Node score="-0.1565758">
										<SimplePredicate field="Education" operator="equal" value="Yr5t6"/>
									</Node>
									<Node score="-0.17396867">
										<SimplePredicate field="float(Hours)" operator="greaterOrEqual" value="82.0"/>
									</Node>
									<Node score="0.2759815">
										<SimplePredicate field="float(Hours)" operator="greaterOrEqual" value="69.0"/>
										<Node score="-0.119855784">
											<SimplePredicate field="float(Age)" operator="greaterOrEqual" value="44.0"/>
										</Node>
									</Node>
									<Node score="-0.076461524">
										<SimplePredicate field="float(Hours)" operator="greaterOrEqual" value="59.0"/>
									</Node>
								</Node>
							</TreeModel>
						</Segment>
						<Segment id="28">
							<True/>
							<TreeModel functionName="regression" noTrueChildStrategy="returnLastPrediction" x-mathContext="float">
								<MiningSchema>
									<MiningField name="Education"/>
									<MiningField name="Occupation"/>
									<MiningField name="float(Age)"/>
									<MiningField name="float(Income)"/>
								</MiningSchema>
								<Node score="0.22150739">
									<True/>
									<Node score="-3.2622716E-5">
										<SimplePredicate field="Occupation" operator="equal" value="Service"/>
										<Node score="0.028238658">
											<SimplePredicate field="float(Age)" operator="greaterOrEqual" value="53.5"/>
										</Node>
										<Node score="-0.22617905">
											<SimplePredicate field="float(Income)" operator="greaterOrEqual" value="27157.488"/>
											<Node score="-0.032072324">
												<SimplePredicate field="float(Age)" operator="greaterOrEqual" value="41.5"/>
											</Node>
										</Node>
									</Node>
									<Node score="0.06705515">
										<SimplePredicate field="Education" operator="equal" value="Yr11"/>
										<Node score="-0.24550308">
											<SimplePredicate field="float(Age)" operator="greaterOrEqual" value="34.5"/>
										</Node>
									</Node>
									<Node score="-0.16809832">
										<SimplePredicate field="Education" operator="equal" value="Yr7t8"/>
									</Node>
									<Node score="0.03335554">
										<SimplePredicate field="float(Age)" operator="greaterOrEqual" value="36.5"/>
										<Node score="-0.057531122">
											<SimplePredicate field="Occupation" operator="equal" value="Repair"/>
										</Node>
									</Node>
									<Node score="-0.030767186">
										<SimplePredicate field="float(Income)" operator="greaterOrEqual" value="9242.699"/>
									</Node>
								</Node>
							</TreeModel>
						</Segment>
						<Segment id="29">
							<True/>
							<TreeModel functionName="regression" noTrueChildStrategy="returnLastPrediction" x-mathContext="float">
								<MiningSchema>
									<MiningField name="Education"/>
									<MiningField name="Marital"/>
									<MiningField name="Occupation"/>
									<MiningField name="Gender"/>
									<MiningField name="float(Age)"/>
									<MiningField name="float(Income)"/>
									<MiningField name="float(Hours)"/>
								</MiningSchema>
								<Node score="0.027828371">
									<True/>
									<Node score="-0.0012336791">
										<SimplePredicate field="Gender" operator="equal" value="Male"/>
										<Node score="-0.14392148">
											<SimplePredicate field="float(Income)" operator="greaterOrEqual" value="39451.38"/>
											<Node score="-0.030786648">
												<SimplePredicate field="Occupation" operator="equal" value="Transport"/>
												<Node score="-0.2558062">
													<SimplePredicate field="float(Income)" operator="greaterOrEqual" value="43006.78"/>
													<Node score="-0.07745395">
														<SimplePredicate field="Education" operator="equal" value="HSgrad"/>
													</Node>
												</Node>
											</Node>
											<Node score="0.02168487">
												<SimplePredicate field="float(Hours)" operator="greaterOrEqual" value="44.5"/>
												<Node score="-0.13912998">
													<SimplePredicate field="Occupation" operator="equal" value="Professional"/>
												</Node>
											</Node>
											<Node score="0.11210956">
												<SimplePredicate field="float(Hours)" operator="greaterOrEqual" value="24.5"/>
											</Node>
										</Node>
										<Node score="-0.28873238">
											<SimplePredicate field="float(Income)" operator="greaterOrEqual" value="38413.914"/>
										</Node>
										<Node score="0.24865082">
											<SimplePredicate field="float(Income)" operator="greaterOrEqual" value="36558.29"/>
											<Node score="-0.045060236">
												<SimplePredicate field="float(Hours)" operator="greaterOrEqual" value="49.0"/>
											</Node>
										</Node>
										<Node score="-0.20698987">
											<SimplePredicate field="float(Income)" operator="greaterOrEqual" value="35355.785"/>
										</Node>
									</Node>
									<Node score="0.07799393">
										<SimplePredicate field="Marital" operator="equal" value="Absent"/>
										<Node score="-0.24069752">
											<SimplePredicate field="float(Income)" operator="greaterOrEqual" value="41675.68"/>
											<Node score="-0.016793828">
												<SimplePredicate field="float(Hours)" operator="greaterOrEqual" value="49.0"/>
											</Node>
											<Node score="-0.01617415">
												<SimplePredicate field="float(Income)" operator="greaterOrEqual" value="152508.12"/>
											</Node>
										</Node>
									</Node>
									<Node score="-0.23195013">
										<SimplePredicate field="Occupation" operator="equal" value="Machinist"/>
									</Node>
									<Node score="-0.15619297">
										<SimplePredicate field="Marital" operator="equal" value="Divorced"/>
										<Node score="0.098328434">
											<SimplePredicate field="Education" operator="equal" value="Bachelor"/>
										</Node>
									</Node>
									<Node score="0.20988165">
										<SimplePredicate field="float(Age)" operator="greaterOrEqual" value="57.5"/>
									</Node>
								</Node>
							</TreeModel>
						</Segment>
						<Segment id="30">
							<True/>
							<TreeModel functionName="regression" noTrueChildStrategy="returnLastPrediction" x-mathContext="float">
								<MiningSchema>
									<MiningField name="Employment"/>
									<MiningField name="Education"/>
									<MiningField name="Marital"/>
									<MiningField name="Occupation"/>
									<MiningField name="float(Age)"/>
									<MiningField name="float(Income)"/>
									<MiningField name="float(Hours)"/>
								</MiningSchema>
								<Node score="-0.06181956">
									<True/>
									<Node score="0.28289276">
										<SimplePredicate field="float(Hours)" operator="greaterOrEqual" value="41.5"/>
										<Node score="0.1623748">
											<SimplePredicate field="Employment" operator="equal" value="Private"/>
											<Node score="0.07439134">
												<SimplePredicate field="Education" operator="equal" value="Bachelor"/>
												<Node score="0.08719982">
													<SimplePredicate field="float(Age)" operator="greaterOrEqual" value="30.5"/>
													<Node score="0.267447">
														<SimplePredicate field="Occupation" operator="equal" value="Executive"/>
													</Node>
												</Node>
												<Node score="-0.17962769">
													<SimplePredicate field="Marital" operator="equal" value="Absent"/>
												</Node>
											</Node>
											<Node score="-0.12668064">
												<SimplePredicate field="Occupation" operator="equal" value="Repair"/>
												<Node score="0.23072128">
													<SimplePredicate field="float(Age)" operator="greaterOrEqual" value="35.5"/>
												</Node>
											</Node>
											<Node score="-0.05303542">
												<SimplePredicate field="float(Age)" operator="greaterOrEqual" value="28.5"/>
											</Node>
										</Node>
										<Node score="-0.2091407">
											<SimplePredicate field="Education" operator="equal" value="College"/>
											<Node score="0.29483998">
												<SimplePredicate field="float(Age)" operator="greaterOrEqual" value="45.5"/>
											</Node>
											<Node score="0.10168854">
												<SimplePredicate field="float(Hours)" operator="greaterOrEqual" value="56.5"/>
											</Node>
										</Node>
										<Node score="-0.21863614">
											<SimplePredicate field="float(Age)" operator="greaterOrEqual" value="30.5"/>
											<Node score="-0.026597887">
												<SimplePredicate field="float(Age)" operator="greaterOrEqual" value="43.5"/>
											</Node>
										</Node>
										<Node score="-0.07335712">
											<SimplePredicate field="float(Income)" operator="greaterOrEqual" value="54456.04"/>
										</Node>
									</Node>
									<Node score="0.17137027">
										<SimplePredicate field="Occupation" operator="equal" value="Protective"/>
									</Node>
									<Node score="0.2068965">
										<SimplePredicate field="float(Income)" operator="greaterOrEqual" value="13589.54"/>
										<Node score="-0.034307856">
											<SimplePredicate field="float(Income)" operator="greaterOrEqual" value="15130.985"/>
											<Node score="0.12289637">
												<SimplePredicate field="Education" operator="equal" value="Master"/>
											</Node>
										</Node>
									</Node>
									<Node score="0.07115842">
										<SimplePredicate field="float(Age)" operator="greaterOrEqual" value="59.0"/>
									</Node>
									<Node score="-0.26867017">
										<SimplePredicate field="float(Income)" operator="greaterOrEqual" value="5221.54"/>
									</Node>
								</Node>
							</TreeModel>
						</Segment>
						<Segment id="31">
							<True/>
							<TreeModel functionName="regression" noTrueChildStrategy="returnLastPrediction" x-mathContext="float">
								<MiningSchema>
									<MiningField name="Education"/>
									<MiningField name="Marital"/>
									<MiningField name="float(Age)"/>
									<MiningField name="float(Income)"/>
								</MiningSchema>
								<Node score="0.0068975724">
									<True/>
									<Node score="-0.08243443">
										<SimplePredicate field="Education" operator="equal" value="Doctorate"/>
										<Node score="-0.02630109">
											<SimplePredicate field="float(Age)" operator="greaterOrEqual" value="56.0"/>
										</Node>
										<Node score="0.21714859">
											<SimplePredicate field="float(Age)" operator="greaterOrEqual" value="48.0"/>
										</Node>
										<Node score="0.19603571">
											<SimplePredicate field="float(Income)" operator="greaterOrEqual" value="87586.67"/>
										</Node>
									</Node>
									<Node score="-0.19773313">
										<SimplePredicate field="float(Age)" operator="greaterOrEqual" value="73.5"/>
									</Node>
									<Node score="0.20955056">
										<SimplePredicate field="Education" operator="equal" value="Professional"/>
										<Node score="-0.004810082">
											<SimplePredicate field="float(Income)" operator="greaterOrEqual" value="49228.32"/>
										</Node>
									</Node>
									<Node score="-0.0037699256">
										<SimplePredicate field="Marital" operator="equal" value="Married"/>
										<Node score="0.057815444">
											<SimplePredicate field="float(Income)" operator="greaterOrEqual" value="62903.574"/>
										</Node>
									</Node>
									<Node score="-0.102676325">
										<SimplePredicate field="float(Income)" operator="greaterOrEqual" value="91914.06"/>
									</Node>
								</Node>
							</TreeModel>
						</Segment>
						<Segment id="32">
							<True/>
							<TreeModel functionName="regression" noTrueChildStrategy="returnLastPrediction" x-mathContext="float">
								<MiningSchema>
									<MiningField name="Education"/>
									<MiningField name="float(Age)"/>
									<MiningField name="float(Income)"/>
									<MiningField name="float(Hours)"/>
								</MiningSchema>
								<Node score="-0.0731542">
									<True/>
									<Node score="-0.17925397">
										<SimplePredicate field="Education" operator="equal" value="Yr12"/>
									</Node>
									<Node score="0.059363503">
										<SimplePredicate field="float(Income)" operator="greaterOrEqual" value="227693.55"/>
										<Node score="0.12345462">
